digraph Tree {
node [shape=box] ;
0 [label="X[10] <= 0.785\ngini = 0.663\nsamples = 89\nvalue = [27, 34, 28]"] ;
1 [label="X[12] <= 393.5\ngini = 0.071\nsamples = 27\nvalue = [0, 1, 26]"] ;
0 -> 1 [labeldistance=2.5, labelangle=45, headlabel="True"] ;
2 [label="gini = 0.0\nsamples = 1\nvalue = [0, 1, 0]"] ;
1 -> 2 ;
3 [label="gini = 0.0\nsamples = 26\nvalue = [0, 0, 26]"] ;
1 -> 3 ;
4 [label="X[0] <= 13.04\ngini = 0.526\nsamples = 62\nvalue = [27, 33, 2]"] ;
0 -> 4 [labeldistance=2.5, labelangle=-45, headlabel="False"] ;
5 [label="gini = 0.0\nsamples = 31\nvalue = [0, 31, 0]"] ;
4 -> 5 ;
6 [label="X[12] <= 715.0\ngini = 0.233\nsamples = 31\nvalue = [27, 2, 2]"] ;
4 -> 6 ;
7 [label="gini = 0.64\nsamples = 5\nvalue = [1, 2, 2]"] ;
6 -> 7 ;
8 [label="gini = 0.0\nsamples = 26\nvalue = [26, 0, 0]"] ;
6 -> 8 ;
}